// Auto-generated weights ROM (original CNN model)
#pragma once
#include "ecg_cnn.h"

static const weight_t ROM_conv1_w[8][1][7] = {
    { { 0.808355, 0.274597, -0.268904, 0.097335, -0.464580, -0.572587, -0.570781 } },
    { { 0.006863, -0.072012, -0.354196, -0.356624, -0.069203, 0.164639, 0.511230 } },
    { { -0.316640, -0.330161, -0.004772, -0.055982, -0.265593, -0.369781, -0.392396 } },
    { { 0.442869, -0.119984, -0.455584, -0.181636, -0.461232, -0.297729, -0.229759 } },
    { { 0.639480, 0.854410, 0.079155, 0.328793, 0.473816, 0.788829, 0.606516 } },
    { { 0.395674, 0.145351, 0.252308, -0.273229, -0.420919, -0.434611, -0.789018 } },
    { { 1.000467, 0.031223, -0.154578, -0.714550, -0.255084, 0.014901, 0.577641 } },
    { { 0.475729, 0.289055, -0.532650, -0.117671, 0.044238, 0.439691, 1.638405 } },
};



static const weight_t ROM_conv1_b[8] = {
    -0.297730, -0.105010, 0.318968, -0.075846, -0.345807, 0.073366, 0.481895, 0.269094,
};

static const weight_t ROM_conv2_w[16][8][5] = {
    {   // FILTER 0
        { 1.100388, 0.532724, 0.688925, 0.689949, 0.885398 },
        { 1.049307, 1.368667, 0.813920, -0.070751, -0.583944 },
        { -0.475902, -0.665901, -0.217529, -0.101724, 0.299087 },
        { -0.430236, -0.170318, -0.102027, 0.067513, 0.554214 },
        { -0.249673, -0.517042, -0.216654, 0.119440, 0.181027 },
        { -0.214445, -0.154696, 0.000866, 0.247981, 0.560228 },
        { 0.641852, -0.010273, -0.003538, -0.026920, -0.240690 },
        { 0.075599, 0.278019, 0.340066, 0.104355, -0.852701 }
    },

    {   // FILTER 1
        { 0.092958, -0.002117, -0.044133, 0.229122, 0.072493 },
        { 0.130854, -0.120498, -0.042236, -0.243094, 0.100844 },
        { 0.187044, -0.046330, -0.071216, -0.177753, -0.159630 },
        { -0.031353, 0.243926, 0.044136, -0.084673, 0.101697 },
        { 0.177066, 0.168933, 0.020606, 0.064935, 0.341086 },
        { 0.044834, -0.017895, 0.057946, 0.246966, 0.037830 },
        { -0.233321, -0.237884, -0.105369, -0.105441, -0.014499 },
        { 0.191241, 0.015052, 0.164257, -0.087519, -0.029828 }
    },

    {   // FILTER 2
        { 2.331643, 1.526691, 1.038018, -0.404805, -4.219042 },
        { 2.348183, 1.632119, 1.092209, 0.752687, 0.051454 },
        { -0.506953, -0.084819, -0.072644, -0.229890, -0.645869 },
        { 1.066636, 0.838864, 0.346952, -0.242078, -1.252264 },
        { 0.586219, -0.928569, -0.507822, 0.269159, 0.811351 },
        { 0.752075, 0.253510, -0.066234, -0.881221, -1.871617 },
        { 1.055626, -1.303812, -1.617990, -0.318444, 0.494330 },
        { 0.296983, -1.220216, -0.605750, 0.287131, 0.859341 }
    },

    {   // FILTER 3
        { 0.502915, -0.557451, -1.200810, -0.919610, -0.659344 },
        { -0.850984, -0.908993, -0.402030, -0.705844, -0.445317 },
        { -0.705770, -0.360029, -0.298674, -0.371994, -0.651828 },
        { -0.425370, -0.445968, -0.514520, -0.909159, -0.945535 },
        { 0.098753, 0.282470, -0.071051, 0.213228, 0.080065 },
        { -0.246862, -0.406244, -0.696376, -0.755061, -0.713389 },
        { 0.421591, 0.260891, 0.139636, 0.292167, 0.344567 },
        { 0.341429, 0.381084, 0.401052, 0.071902, 0.412205 }
    },

    {   // FILTER 4
        { 0.194392, -0.024749, -0.152257, 0.241785, 0.278796 },
        { 0.074106, 0.032631, -0.190169, 0.097726, 0.027841 },
        { -0.179744, 0.172019, 0.107630, 0.206766, 0.133567 },
        { 0.226062, 0.012627, 0.048585, 0.014080, -0.053398 },
        { 0.497753, 0.363222, 0.202417, -0.083048, -0.481309 },
        { 0.147558, 0.075464, 0.000405, -0.182605, 0.110018 },
        { -0.012152, -0.246872, -0.003646, -0.041725, -0.237724 },
        { 0.057294, -0.094781, -0.086572, -0.258674, -0.414688 }
    },

    {   // FILTER 5
        { 0.994641, 1.213237, 0.934617, 0.347888, -0.191417 },
        { 0.026529, 3.148110, 3.653262, 3.367680, 3.467260 },
        { 0.089818, -0.765473, -0.874250, -0.446819, -0.667570 },
        { 0.273233, 0.382218, 0.602532, 0.510553, -0.156533 },
        { 0.559772, 0.750659, 0.767573, 0.359530, -1.230028 },
        { 0.139025, 0.665499, 0.283150, 0.159302, -1.009078 },
        { 0.019571, 0.180097, 0.064910, -0.523131, -0.911119 },
        { 0.337130, 0.257768, 0.157198, -0.579604, -1.899089 }
    },

    {   // FILTER 6
        { 0.078506, -0.346743, -0.221015, -0.107385, 0.126443 },
        { 0.037410, 0.143528, 0.053511, 0.503578, 0.395849 },
        { -0.371956, -0.355607, -0.264751, -0.015404, 0.013224 },
        { 0.089506, 0.000521, -0.300061, 0.092171, -0.056321 },
        { 0.242928, -0.158251, -0.156469, 0.004492, 0.283767 },
        { -0.273386, -0.375242, -0.224809, 0.252184, 0.105030 },
        { 0.187884, 0.072132, 0.047710, 0.235105, 0.127050 },
        { 0.133348, 0.312322, 0.212699, 0.089663, 0.008664 }
    },

    {   // FILTER 7
        { 0.543102, 0.011729, 0.031633, 0.029845, -0.424356 },
        { 0.184939, 0.276586, 0.450197, 0.743083, 0.970725 },
        { -0.095019, 0.164149, -0.223087, -0.147929, -0.068161 },
        { 0.432274, 0.133005, 0.150831, -0.227468, -0.221815 },
        { 0.664703, 0.586039, 0.024210, -0.224506, -0.417421 },
        { 0.263525, -0.191695, -0.180754, -0.113524, -0.183606 },
        { 0.388623, -0.034796, -0.391090, -0.360893, 0.140303 },
        { 0.199921, -0.054413, -0.449034, -0.758452, -0.170929 }
    },
    
     {   // FILTER 8
        { -0.269476, -0.244131, -0.199082, -0.125019, 0.045547 },
        { 0.065631, -0.107165, -0.132752, -0.205363, -0.294811 },
        { -0.105150, 0.150880, -0.059816, 0.227777, 0.165825 },
        { 0.044282, 0.059037, -0.012283, 0.045552, -0.181979 },
        { 0.186258, 0.329754, 0.094406, -0.458755, -0.528375 },
        { 0.004403, -0.207979, 0.175472, 0.128843, 0.016234 },
        { 0.240082, -0.011605, -0.286699, -0.240549, -0.430096 },
        { 0.464570, 0.023639, -0.216941, 0.048934, -0.049365 }
    },

    {   // FILTER 9
        { -0.041424, -0.116767, 0.216370, 0.219548, -0.014856 },
        { 0.130915, 0.129451, -0.227218, -0.078280, -0.160636 },
        { 0.211558, 0.147569, -0.201438, 0.200193, -0.191628 },
        { 0.249832, -0.036624, 0.090947, -0.183733, 0.145134 },
        { 0.146849, 0.152744, 0.207532, -0.118049, 0.122076 },
        { -0.113554, -0.113177, 0.204820, 0.197362, 0.248911 },
        { -0.217117, 0.011186, 0.022462, -0.225125, -0.208309 },
        { -0.145681, -0.193535, 0.012635, -0.036556, -0.021399 }
    },

    {   // FILTER 10
        { -0.477057, -0.436615, -0.410811, -0.365618, -0.709777 },
        { 0.108612, 0.459035, 0.338529, 0.216602, 0.338468 },
        { 0.129473, 0.149122, 0.199023, -0.005686, -0.039511 },
        { 0.117017, -0.021241, 0.006950, -0.179302, -0.067499 },
        { -0.811912, -0.163191, 0.479951, 0.235000, -0.411729 },
        { -0.086982, 0.078037, 0.012494, -0.148240, -0.121904 },
        { -0.445251, -0.262643, 0.019772, -0.237679, 0.087157 },
        { -0.452317, -0.015198, 0.411798, 0.193606, -0.375319 }
    },

    {   // FILTER 11
        { -0.076555, 0.027465, -0.141672, -0.346643, -0.077290 },
        { 0.238504, 0.457160, 0.797266, 0.576087, 0.370750 },
        { 0.263945, 0.114279, -0.104911, -0.012197, -0.374367 },
        { 0.221624, 0.441147, 0.379598, -0.087660, -0.150605 },
        { 0.244624, 0.035841, 0.166583, -0.053249, 0.199433 },
        { 0.350344, -0.112761, -0.076159, -0.400905, -0.406941 },
        { -0.075261, 0.136044, 0.065469, -0.135545, 0.211377 },
        { -0.076991, 0.029081, 0.077211, 0.089772, -0.038042 }
    },

    {   // FILTER 12
        { -0.032755, 0.027140, 0.310364, 0.111307, 0.383501 },
        { 0.222210, 0.425198, 0.489462, 0.192613, 0.342281 },
        { -0.163804, -0.144308, -0.086680, -0.244891, -0.192267 },
        { 0.175567, -0.138851, -0.010681, 0.087839, 0.473582 },
        { 0.175195, 0.046451, 0.068711, 0.010856, 0.124890 },
        { -0.400647, -0.094149, -0.135475, 0.325800, 0.352317 },
        { 0.092377, 0.072566, 0.273178, 0.016957, 0.275576 },
        { 0.323419, 0.322530, 0.058343, 0.113515, 0.110372 }
    },

    {   // FILTER 13
        { 0.125076, 0.249664, -0.037781, 0.066334, -0.254183 },
        { -0.119097, -0.181086, 0.122753, -0.220441, -0.278928 },
        { 0.048588, -0.362787, -0.215154, -0.095259, -0.355158 },
        { -0.122384, 0.156144, -0.013555, 0.149103, -0.183902 },
        { 0.004816, 0.033327, 0.029513, -0.010358, 0.203099 },
        { 0.101501, -0.105324, -0.213238, -0.201235, -0.045471 },
        { 0.004178, 0.279529, 0.137437, 0.272693, 0.040252 },
        { 0.004951, 0.038798, 0.367489, 0.285903, 0.199379 }
    },

    {   // FILTER 14
        { -0.011197, -0.104127, -0.075711, 0.070947, -0.007718 },
        { -0.290117, 0.008041, -0.157985, -0.208743, -0.236700 },
        { -0.194475, 0.088272, 0.230610, 0.230873, -0.160658 },
        { -0.175117, -0.130106, 0.147009, 0.193146, -0.164210 },
        { 0.556114, 0.332699, 0.390245, -0.073466, -0.527659 },
        { -0.035941, 0.022286, 0.125445, 0.140124, 0.155357 },
        { -0.112667, 0.065105, 0.026065, -0.011547, -0.591607 },
        { 0.204766, 0.287805, 0.146105, -0.512497, -1.393592 }
    },

    {   // FILTER 15
        { 0.090215, 0.106156, -0.074269, -0.106350, -0.016951 },
        { 0.161167, 0.241129, 0.214842, 0.695426, 0.517350 },
        { -0.255547, -0.168345, -0.141706, -0.223058, -0.129202 },
        { -0.017257, 0.142537, -0.013672, -0.097034, 0.006773 },
        { -0.104511, -0.097724, 0.069640, 0.012079, 0.038716 },
        { -0.203024, 0.060833, -0.058453, 0.042391, 0.278512 },
        { 0.070933, -0.053080, 0.091951, -0.047367, 0.291794 },
        { 0.170204, 0.184959, 0.121665, 0.075954, 0.266966 }
    }
};


static const weight_t ROM_conv2_b[16] = {
    -0.023306, -0.203653, -0.429797, 0.195267, -0.146538, -0.873880, 0.041764, -0.233427, 0.024212, -0.172860, 0.208105, 0.005864, -0.005038, -0.060344, -0.086885, 0.029131,
};

static const weight_t ROM_dense1_w[16][16] = {
    { 0.296916, -0.032685, -0.406213, 0.213579, -0.297865, 0.163840, -0.370338, -0.136783,
     -0.225775, -0.148187, -0.121122, 0.367083, -0.234579, -0.146978, -0.278509, -0.077599 },

    { -1.137465, -0.300253, 3.292091, 0.269210, -1.496916, 1.585901, 0.161121, 0.450804,
     -1.209734, -0.479090, -0.199822, -0.222570, -0.290453, -0.324184, -0.870671, 0.178518 },

    { 2.434264, -0.127533, -2.429183, -0.371149, -0.272863, -2.106452, 0.393074, -1.155906,
      0.199362, 0.103566, 0.460949, 0.220182, 0.315723, 0.032152, -0.213653, 0.094581 },

    { -0.639092, -0.037135, 1.645416, -0.687129, 0.013748, 0.713144, -0.546656, 0.876252,
      0.393267, 0.143740, 0.143803, -0.105592, -0.643364, -0.367490, 0.390570, -0.495608 },

    { 1.747810, -0.215999, -3.006907, -0.175622, 0.148625, -1.913443, 0.327554, -1.207704,
      0.235087, -0.256777, 0.581603, 0.317200, 0.023743, -0.194392, -0.122467, 0.422674 },

    { -0.095879, 0.431401, 1.402578, -0.409578, -0.046631, 1.174024, -0.762751, 0.655620,
      0.300049, 0.147581, 0.099010, -0.510041, -0.358706, -0.483811, 0.330236, -0.518646 },

    { -0.814037, -0.177856, 1.389940, -0.838287, 0.235550, 1.132557, -0.532855, 0.309400,
      0.429638, 0.179309, 0.077680, -0.802092, -0.749147, 0.209265, 0.018215, -0.279868 },

    { -0.075376, -0.275796, -0.271234, -0.386652, -0.322793, -0.435401, -0.210659, -0.191697,
      0.329861, -0.200759, -0.062366, 0.003131, 0.274833, -0.475473, 0.079852, 0.146046 },

    { 1.974582, -0.232506, -2.784142, 0.071731, -0.099884, -2.028476, 0.131825, -1.387217,
      0.020336, 0.012547, 0.698296, 0.202007, 0.087820, -0.234590, 0.103762, -0.078423 },

    { -0.320761, 0.277771, 0.417826, -0.379293, -0.416992, 0.011244, -0.022573, -0.079783,
      -0.236414, -0.031668, -0.093523, 0.355356, -0.030599, -0.154211, -0.356729, 0.213440 },

    { 2.651898, 0.119358, -2.927663, 0.230571, -0.171903, -1.911660, -0.318710, -0.889982,
      0.382699, -0.097539, 0.441290, -0.124055, -0.144255, -0.106954, -0.179407, 0.289217 },

    { 1.945965, -0.186810, -3.356372, -0.043240, 0.118854, -1.970478, -0.081854, -1.038090,
      0.001432, -0.241827, 0.789165, 0.343613, 0.198070, -0.178610, 0.175365, 0.228581 },

    { -0.300387, 0.263404, 0.279791, 0.308917, -0.045288, -0.034388, -0.162314, 0.167831,
      -0.291282, -0.423939, -0.475713, 0.308990, -0.425556, -0.136100, 0.070339, -0.335009 },

    { 2.262462, -0.370289, -2.891817, -0.023266, -0.088215, -2.128221, -0.105477, -1.208752,
      0.269250, 0.000284, 0.535148, 0.406086, 0.125078, 0.246041, -0.246097, -0.341216 },

    { -0.465274, 0.448055, 1.516965, -0.654144, 0.227282, 1.211963, -0.615866, 1.041652,
      0.173040, -0.185180, -0.124768, -0.415450, -0.329017, -0.005669, 0.515434, -0.802295 },

    { -0.650687, 0.360445, 1.814445, -0.923498, 0.307311, 1.050083, -0.174574, 1.027440,
      0.079980, 0.206120, 0.322893, -0.599267, -0.064429, -0.028405, 0.333756, -0.720788 }
};


static const weight_t ROM_dense1_b[16] = {
    0.000000, 0.209153, 0.106388, -0.049390, 0.161426, -0.023346, -0.018434, -0.037173, 0.159582, 0.016015, 0.170518, 0.145337, -0.038749, 0.158570, 0.075190, -0.076776,
};

static const weight_t ROM_dense2_w[1][16] = {
    { 0.588910, -2.107815, 2.338349, -0.954737, 1.710676, -0.849066,
     -0.865657, -0.535985, 1.935707, -0.532385, 2.080628, 1.675009,
     -0.192210, 1.948533, -0.716955, -0.657277 }
};

static const weight_t ROM_dense2_b[1] = {
    -0.370954
};
